{
    "w": [
      [
        -44733.51963430447, -4696.754525539569,
         4196.669223070947, -44733.64694722606,
        -4696.679214517979,   4196.78516936248,
         -44733.5863068847, -4695.333954961956,
         4197.729700815166, -44734.29943795327,
        -4695.433602281948,  4198.009014979423,
         -44734.8512289338, -4696.398492424496,
         4196.372473130037, -44734.51356480529,
        -4695.888313075289,  4197.860049812263
      ],
      [
          44734.37791278428,   4696.319812970936,
         -4196.902171488067,  44733.723954253124,
          4696.737411545591,  -4196.193365508775,
          44734.26895353874,   4696.419842479845,
         -4197.115880162983,   44733.72381432336,
          4695.490545921864,  -4196.483917995636,
          44733.45148276179,    4695.40436143919,
        -4196.2282248197935,  44734.601410727824,
          4696.657186025461,   -4197.18400566405,
          44734.03263731351,   4696.893323630529,
          -4198.04112828435,   44734.75747063876,
          4696.019736676768,  -4197.989133745049,
         44733.287144753696,   4695.782510089828,
         -4196.925319085205,   44733.79863547869,
         4697.0007019246805, -4197.7410792158935,
         44733.601367214076,   4695.840829704932,
        -4196.7443147460435,   44734.39692223083,
          4696.653390309159,  -4197.348022427123
      ],
      [
        -44733.730891252555, -4696.817429809287,
          4198.153952279847, -44735.18229160002,
         -4695.761508904545,  4197.376179814773,
         -44734.59316279177, -4697.176864902784,
          4196.722408575755, -44735.18970889685,
         -4697.097478391759,  4196.959845612159,
         -44735.12971345065, -4695.893274107419,
          4197.149899947964, -44733.60163879298,
         -4696.995685938968,  4197.024035156839
      ],
      [ 44734.52585077262, 4695.574073782638, -4197.116247689137 ]
    ],
    "b": [
      [
        44735.073491669544,
        4695.937875789492,
        -4197.1630571655805,
        44734.563045429204,
        4696.030335795556,
        -4196.1965473039
      ],
      [
        44733.88811088738,
        4695.3202528240745,
        -4197.642336630059,
        44734.852600494305,
        4696.474072968973,
        -4196.355682719581
      ],
      [ 44734.0304460994, 4695.619763533734, -4197.47911121871 ],
      [ 44734.4432873766 ]
    ],
    "accuracy": 1,
    "nodeConfig": [ 3, 6, 6, 3, 1 ]
  }